digraph Tree {
node [shape=box, style="filled, rounded", color="black", fontname="helvetica"] ;
edge [fontname="helvetica"] ;
0 [label=<month &le; 3.5<br/>gini = 0.492<br/>samples = 62230<br/>value = [27286, 34944]<br/>class = Up>, fillcolor="#d4eaf9"] ;
1 [label=<year &le; 2008.5<br/>gini = 0.475<br/>samples = 15600<br/>value = [6053, 9547]<br/>class = Up>, fillcolor="#b7dbf5"] ;
0 -> 1 [labeldistance=2.5, labelangle=45, headlabel="True"] ;
2 [label=<return_12m &le; 0.032<br/>gini = 0.494<br/>samples = 6335<br/>value = [2826, 3509]<br/>class = Up>, fillcolor="#d8ecfa"] ;
1 -> 2 ;
3 [label=<month &le; 1.5<br/>gini = 0.49<br/>samples = 5396<br/>value = [2320, 3076]<br/>class = Up>, fillcolor="#cee7f9"] ;
2 -> 3 ;
4 [label="(...)", fillcolor="#C0C0C0"] ;
3 -> 4 ;
7 [label="(...)", fillcolor="#C0C0C0"] ;
3 -> 7 ;
10 [label=<month &le; 2.5<br/>gini = 0.497<br/>samples = 939<br/>value = [506, 433]<br/>class = Down>, fillcolor="#fbede2"] ;
2 -> 10 ;
11 [label="(...)", fillcolor="#C0C0C0"] ;
10 -> 11 ;
14 [label="(...)", fillcolor="#C0C0C0"] ;
10 -> 14 ;
17 [label=<month &le; 2.5<br/>gini = 0.454<br/>samples = 9265<br/>value = [3227, 6038]<br/>class = Up>, fillcolor="#a3d1f3"] ;
1 -> 17 ;
18 [label=<year &le; 2009.5<br/>gini = 0.435<br/>samples = 6210<br/>value = [1983, 4227]<br/>class = Up>, fillcolor="#96cbf1"] ;
17 -> 18 ;
19 [label="(...)", fillcolor="#C0C0C0"] ;
18 -> 19 ;
22 [label="(...)", fillcolor="#C0C0C0"] ;
18 -> 22 ;
25 [label=<year &le; 2011.5<br/>gini = 0.483<br/>samples = 3055<br/>value = [1244, 1811]<br/>class = Up>, fillcolor="#c1e0f7"] ;
17 -> 25 ;
26 [label="(...)", fillcolor="#C0C0C0"] ;
25 -> 26 ;
29 [label="(...)", fillcolor="#C0C0C0"] ;
25 -> 29 ;
32 [label=<year &le; 2002.5<br/>gini = 0.496<br/>samples = 46630<br/>value = [21233, 25397]<br/>class = Up>, fillcolor="#dfeffb"] ;
0 -> 32 [labeldistance=2.5, labelangle=-45, headlabel="False"] ;
33 [label=<month &le; 8.5<br/>gini = 0.48<br/>samples = 2516<br/>value = [1508, 1008]<br/>class = Down>, fillcolor="#f6d5bd"] ;
32 -> 33 ;
34 [label=<month &le; 4.5<br/>gini = 0.426<br/>samples = 1398<br/>value = [968, 430]<br/>class = Down>, fillcolor="#f1b991"] ;
33 -> 34 ;
35 [label="(...)", fillcolor="#C0C0C0"] ;
34 -> 35 ;
38 [label="(...)", fillcolor="#C0C0C0"] ;
34 -> 38 ;
41 [label=<month &le; 10.5<br/>gini = 0.499<br/>samples = 1118<br/>value = [540, 578]<br/>class = Up>, fillcolor="#f2f9fd"] ;
33 -> 41 ;
42 [label="(...)", fillcolor="#C0C0C0"] ;
41 -> 42 ;
45 [label="(...)", fillcolor="#C0C0C0"] ;
41 -> 45 ;
48 [label=<year &le; 2006.5<br/>gini = 0.494<br/>samples = 44114<br/>value = [19725, 24389]<br/>class = Up>, fillcolor="#d9ecfa"] ;
32 -> 48 ;
49 [label=<month &le; 8.5<br/>gini = 0.472<br/>samples = 10831<br/>value = [4129, 6702]<br/>class = Up>, fillcolor="#b3d9f5"] ;
48 -> 49 ;
50 [label="(...)", fillcolor="#C0C0C0"] ;
49 -> 50 ;
53 [label="(...)", fillcolor="#C0C0C0"] ;
49 -> 53 ;
56 [label=<year &le; 2008.5<br/>gini = 0.498<br/>samples = 33283<br/>value = [15596, 17687]<br/>class = Up>, fillcolor="#e8f3fc"] ;
48 -> 56 ;
57 [label="(...)", fillcolor="#C0C0C0"] ;
56 -> 57 ;
60 [label="(...)", fillcolor="#C0C0C0"] ;
56 -> 60 ;
}